1,2
"[[ 1.05789088e-04  2.12777598e-03 -2.11963522e-02 ... -5.54478324e-03
   7.95444840e-03 -1.08276378e-03]
 [-5.40626733e-03  4.08446314e-03 -1.54646572e-05 ...  4.93084665e-03
   1.75583663e-02 -1.62656130e-03]
 [ 2.29712842e-02 -4.91659009e-03  3.85527458e-03 ... -6.61744443e-03
   1.83863015e-02 -2.64854865e-03]
 ...
 [-1.22777556e-02  1.15175114e-02  7.14861275e-03 ... -4.23973434e-03
   1.85984245e-02  4.39509979e-03]
 [ 9.77612917e-03  5.48927714e-03 -8.04589487e-03 ... -3.50509276e-03
   2.35054019e-03 -1.22147253e-02]
 [-4.86853216e-03 -8.96734998e-04 -3.75204361e-03 ...  4.38889649e-04
  -1.25745589e-02 -2.03726391e-02]]","[-6.24530026e-02 -5.09916190e-02 -1.49942842e-02  1.19009112e-01
  1.25912712e-01 -4.80865521e-02  3.31825579e-02 -8.81156325e-02
  1.62781724e-02 -5.15750064e-03 -7.50822549e-03  1.91079540e-03
 -3.10849330e-02  1.03262992e-01  6.81652674e-02  7.40767856e-02
 -6.66424755e-02  7.16761545e-03 -5.37415591e-02 -1.33233887e-01
  8.28685006e-03 -1.84730416e-02 -6.45863868e-02  3.99395099e-03
 -1.04239113e-02  9.47854987e-02 -4.40949894e-02 -3.07918521e-03
 -7.84829569e-02  7.06584990e-02  9.18802737e-02  6.47587335e-02
 -7.11670271e-02  1.71432691e-01 -3.74705579e-02  4.03729213e-02
 -9.12196422e-02 -3.51804618e-02 -4.69862457e-02 -2.38585826e-02
 -4.77173161e-02  6.46143506e-02 -2.46517186e-02  8.15389650e-02
 -1.41484867e-02  5.91231928e-03  9.57930462e-02 -5.12334307e-02
  2.43499493e-02 -5.54651710e-03 -2.17678265e-02  8.82062500e-03
 -1.77963630e-02  2.84436591e-02  9.45526524e-02 -6.26387877e-02
 -3.52791984e-02 -6.99073538e-02  6.81868181e-02  8.22590153e-02
  5.79359514e-02 -1.33010290e-01 -7.44173927e-02  1.13365917e-01
 -5.51309002e-02  9.98686621e-03 -8.49461359e-03  4.15886139e-02
  6.27016729e-02  4.28426804e-02  1.25896012e-01  3.73703523e-02
 -3.02046781e-02 -3.79903903e-02 -5.28327467e-02 -1.36489242e-02
  3.19129261e-02 -3.52886800e-02  6.92599862e-02 -1.38092777e-01
 -2.01851789e-03  4.88394862e-02  1.00097313e-04 -5.47930671e-02
 -1.50683789e-02 -3.70934744e-02  6.28265288e-02 -2.42820892e-02
 -1.17055875e-02  4.04973640e-02  8.61418819e-02  4.35005325e-02
  1.54649243e-02 -7.26558528e-02  8.72354863e-02 -1.79890873e-02
 -1.80579512e-02 -9.32547480e-02  9.84892446e-02  2.27278054e-02
  1.09183237e-01 -3.08149596e-02  1.08193835e-01  6.51541436e-02
  8.02737946e-02 -6.40946447e-02  4.22254870e-02  7.85294557e-02
 -1.00401423e-01  1.81928996e-02 -2.63484855e-02 -7.68556146e-02
 -3.04233149e-02 -4.18437019e-02 -1.04104578e-02  5.17818257e-02
 -7.21580889e-02  4.22827851e-02  9.19129127e-02  9.57978608e-02
  1.51737745e-01  5.22542154e-02  1.58622583e-03  9.21528319e-02
  4.43366841e-03 -9.03639158e-02  7.48101707e-02  7.73192629e-02
 -3.03232879e-02  4.71958356e-02 -3.61179831e-02  1.21443191e-05
  1.93856684e-02 -4.33087805e-02  5.38672027e-02  3.97159018e-02
 -8.34447936e-03  5.37204827e-02 -4.83733772e-03 -6.68005341e-03
 -8.45033075e-02 -1.41418352e-02  1.28101338e-01 -7.30833491e-02
 -2.39113967e-02 -2.83835155e-03 -6.07023398e-02 -1.28189150e-01
  9.55101563e-02 -3.93150147e-02  1.55092553e-01  1.30738372e-02
 -3.68470362e-02 -2.73805005e-02  7.48022501e-02  1.13559853e-01
 -1.68904902e-03 -3.58195892e-02 -5.04781360e-02 -1.02582813e-02
 -1.09328279e-02 -6.07909941e-02 -1.98538443e-01 -9.42865455e-02
  1.17019415e-01  1.97052152e-02  1.30154262e-01 -1.68845224e-01
 -3.68034351e-02  4.99314918e-04  2.76496201e-02 -1.18886863e-01
  1.16889022e-02 -5.19061000e-02 -6.28115741e-04 -1.05492437e-01
 -7.78779593e-03 -4.55962480e-02  1.23726417e-01 -3.44357618e-02
  9.08516818e-02 -9.36180781e-02 -8.90054328e-02 -1.41013792e-01
 -3.26186850e-03 -9.13537719e-03 -1.56920870e-01 -3.86862362e-02
  7.20606858e-02  6.14179600e-02 -4.55443989e-02 -4.40478097e-02
 -6.05684500e-02 -5.44976905e-02 -1.35141104e-01 -4.45539629e-02
 -1.25064573e-02  2.79171756e-02  7.38738733e-02  6.53155014e-02]"
